-3.183059860020875931e-03
-1.337770372629165649e-01
-1.256901491433382034e-02
-6.090328563004732132e-03
-3.182119131088256836e-01
1.136903837323188782e-01
-3.688673302531242371e-02
2.197726134909316897e-04
-1.708695441484451294e-01
-2.354760766029357910e-01
-1.267940402030944824e-01
-4.596525058150291443e-02
-9.704373031854629517e-02
7.540001533925533295e-03
-1.583252474665641785e-02
-1.101973727345466614e-01
1.497300863265991211e-01
-2.524351328611373901e-02
-2.013834891840815544e-03
-9.889056906104087830e-03
1.341850589960813522e-02
-9.623846411705017090e-02
1.331769526004791260e-01
-5.279335752129554749e-02
2.153260633349418640e-02
1.517980080097913742e-02
-1.110472977161407471e-01
-2.668552994728088379e-01
-6.893972307443618774e-02
1.557462513446807861e-01
8.853772282600402832e-02
-5.773275624960660934e-04
2.514465712010860443e-03
3.889177739620208740e-02
1.478879898786544800e-01
-1.141281947493553162e-01
-1.391401439905166626e-01
-3.564877063035964966e-02
3.333231061697006226e-02
3.996003069914877415e-04
-7.787827402353286743e-02
7.787201553583145142e-02
3.308203071355819702e-02
3.542485088109970093e-02
-3.533126413822174072e-02
2.652554248925298452e-04
-1.138465013355016708e-02
5.418327450752258301e-02
-3.248786553740501404e-02
1.871437877416610718e-01
-2.077256562188267708e-03
-2.956017665565013885e-02
-2.095512486994266510e-02
3.897152096033096313e-02
-1.138885840773582458e-01
6.431961059570312500e-02
-5.009257420897483826e-02
3.161493241786956787e-01
4.038288071751594543e-02
4.590299446135759354e-03
-7.175818830728530884e-02
-1.622850000858306885e-01
-2.229855395853519440e-02
6.176338647492229939e-04
-2.412463305518031120e-03
-3.384871780872344971e-02
5.955898202955722809e-03
-2.693519741296768188e-02
2.073899656534194946e-02
3.335045278072357178e-02
-1.608759351074695587e-02
1.678111962974071503e-03
3.530104830861091614e-02
-8.448348194360733032e-02
-4.473463445901870728e-02
9.870854765176773071e-02
4.207718372344970703e-02
-2.236589498352259398e-04
-1.863870173692703247e-01
7.635995745658874512e-02
3.967063501477241516e-02
4.143806546926498413e-02
5.456413142383098602e-03
7.406694442033767700e-02
-2.852209657430648804e-02
-1.031894516199827194e-02
7.693631201982498169e-02
3.090895013883709908e-03
-2.381617762148380280e-02
-6.054572761058807373e-02
-1.860803179442882538e-02
2.080074548721313477e-01
-1.245068311691284180e-01
2.821775525808334351e-02
7.715162634849548340e-02
-1.769022201187908649e-04
-4.328918177634477615e-03
1.975607126951217651e-01
3.551959618926048279e-02
-9.927033679559826851e-04
3.539234772324562073e-02
-6.965642422437667847e-02
5.987200886011123657e-02
-2.517863467801362276e-04
8.402049541473388672e-02
1.380042880773544312e-01
1.890414208173751831e-01
-1.156499162316322327e-01
1.367200911045074463e-01
-3.343404969200491905e-04
1.963762044906616211e-01
-1.221172735095024109e-01
-2.092115283012390137e-01
-2.277515232563018799e-01
6.622752174735069275e-03
-3.116521239280700684e-02
-5.751113221049308777e-02
1.885385215282440186e-01
-2.127349823713302612e-01
1.710642315447330475e-02
1.134533621370792389e-02
-1.298270672559738159e-01
1.845688670873641968e-01
-1.187501251697540283e-01
1.776157766580581665e-01
1.134527549147605896e-01
-5.925882607698440552e-03
-1.865771482698619366e-04
-2.825417090207338333e-03
-1.679209759458899498e-03
-1.452058553695678711e-02
4.922546073794364929e-02
-1.370383948087692261e-01
7.956837862730026245e-02
1.636013686656951904e-01
-1.344070769846439362e-03
1.801357716321945190e-01
-5.243903771042823792e-02
-7.429948076605796814e-03
8.610256761312484741e-02
-6.499470770359039307e-02
-2.535290550440549850e-03
-3.153707981109619141e-01
-1.720982640981674194e-01
1.427041646093130112e-02
6.799367070198059082e-02
4.060721490532159805e-03
-7.237698137760162354e-02
1.562805101275444031e-02
9.290582500398159027e-03
5.645568948239088058e-03
2.117480896413326263e-02
9.228165447711944580e-02
-7.040237635374069214e-02
5.036632530391216278e-03
6.953643262386322021e-02
-1.281154453754425049e-01
-7.581799477338790894e-02
-7.150555402040481567e-02
1.250090426765382290e-03
-2.365404274314641953e-03
2.085999697446823120e-01
-2.774907089769840240e-02
8.519190549850463867e-02
7.081787567585706711e-03
-3.930354490876197815e-03
7.439328730106353760e-02
-1.411179313436150551e-03
9.049603343009948730e-02
-8.259327150881290436e-03
2.248568385839462280e-01
-3.628010749816894531e-01
4.103329777717590332e-02
-4.004144109785556793e-03
-9.025863558053970337e-02
1.088791526854038239e-02
-2.444056570529937744e-01
-3.308651968836784363e-02
5.543916020542383194e-03
1.112075056880712509e-02
4.526839777827262878e-02
1.833208650350570679e-01
-9.662341326475143433e-02
-2.304008416831493378e-02
1.441472023725509644e-02
1.356182694435119629e-01
1.823001056909561157e-01
-9.254816919565200806e-02
-6.769470870494842529e-02
-2.395987212657928467e-01
-9.282659739255905151e-02
-3.427593910600990057e-04
7.218887330964207649e-04
-8.752590417861938477e-02
4.336300119757652283e-02
-4.623017460107803345e-02
2.600472569465637207e-01
-1.051646023988723755e-01
7.712379097938537598e-02
9.933437686413526535e-04
9.009378403425216675e-02
3.137657642364501953e-01
-1.111600697040557861e-01
4.049969613552093506e-01
4.152822867035865784e-02
4.119983408600091934e-03
2.575890123844146729e-01
-6.292919814586639404e-02
1.393990069627761841e-01
3.846562467515468597e-03
-2.135003684088587761e-03
-1.270582228899002075e-01
-3.370954841375350952e-02
-3.974960744380950928e-02
-1.239449158310890198e-01
9.876123815774917603e-02
-4.632299020886421204e-02
-4.969835653901100159e-02
-6.333111226558685303e-02
1.544721275568008423e-01
2.628455162048339844e-01
-1.079490110278129578e-01
-8.827059715986251831e-02
-7.864334038458764553e-04
1.564160455018281937e-03
1.070797145366668701e-01
-1.940168440341949463e-02
3.784397989511489868e-02
-1.181732714176177979e-01
4.735781252384185791e-02
-2.249509468674659729e-02
9.861527942121028900e-04
2.028978802263736725e-02
-9.488394856452941895e-02
1.094863042235374451e-01
-1.979022026062011719e-01
-8.152936585247516632e-03
-2.900912193581461906e-03
-1.874020993709564209e-01
1.796698011457920074e-02
-1.250969767570495605e-01
8.877231739461421967e-03
1.293879235163331032e-03
1.504637859761714935e-02
2.931302040815353394e-02
9.602362662553787231e-02
-2.964768558740615845e-02
-3.101848065853118896e-02
2.243757247924804688e-02
3.496291488409042358e-02
9.307653456926345825e-02
-1.072194334119558334e-02
-1.353232860565185547e-01
-9.697438217699527740e-03
-9.777386672794818878e-03
7.476224564015865326e-04
3.788994159549474716e-03
1.413615047931671143e-01
-6.336067616939544678e-02
7.437784969806671143e-02
2.087710238993167877e-02
1.360221020877361298e-02
1.169118657708168030e-02
1.206536195240914822e-03
6.175174936652183533e-02
-4.461621493101119995e-02
1.526755988597869873e-01
-2.300803214311599731e-01
3.048583492636680603e-02
1.619718037545681000e-03
-7.691328227519989014e-02
-1.509759109467267990e-02
-1.662778407335281372e-01
-9.615951031446456909e-02
-5.437978077679872513e-03
4.135004431009292603e-02
1.116950158029794693e-02
1.277145296335220337e-01
1.925710588693618774e-02
-4.310426115989685059e-02
6.324738264083862305e-02
6.007121875882148743e-03
1.249387338757514954e-01
-7.853247970342636108e-02
-5.126423016190528870e-02
1.261693835258483887e-01
-5.910822190344333649e-03
1.510886126197874546e-03
-4.411360248923301697e-03
4.681615531444549561e-02
-1.463373899459838867e-01
1.334662139415740967e-01
1.201263219118118286e-01
3.958626836538314819e-02
9.689911268651485443e-03
-1.004703575745224953e-03
1.241015121340751648e-01
-8.151377737522125244e-02
5.843273177742958069e-02
-1.972314268350601196e-01
-6.879919674247503281e-03
2.050701528787612915e-03
-1.011481061577796936e-01
-9.023141115903854370e-03
-6.710723787546157837e-02
-1.061738580465316772e-01
3.643083618953824043e-03
2.801588550209999084e-02
6.542913615703582764e-02
3.466450795531272888e-02
9.981267899274826050e-02
-6.494205445051193237e-02
6.335674226284027100e-02
-1.214449852705001831e-01
3.290642425417900085e-02
1.466455752961337566e-03
6.870120763778686523e-03
6.130461115390062332e-03
-6.656533479690551758e-02
-2.696945157367736101e-04
2.953927498310804367e-03
9.347572922706604004e-03
1.105803158134222031e-02
-1.041326671838760376e-02
-1.252780319191515446e-03
9.648614563047885895e-03
1.144002750515937805e-02
1.085306168533861637e-03
-8.443703874945640564e-03
1.010443083941936493e-03
7.665658369660377502e-03
7.296661287546157837e-02
2.102745138108730316e-02
4.569919838104397058e-04
4.483015462756156921e-02
-3.066536271944642067e-03
-5.657265894114971161e-03
-6.181273143738508224e-03
-3.224371233955025673e-03
9.650442749261856079e-03
-2.135247364640235901e-02
1.219454128295183182e-02
-8.494753390550613403e-03
1.393393147736787796e-02
1.748375012539327145e-03
-1.044435705989599228e-02
1.199025567620992661e-02
6.157381460070610046e-03
1.300047896802425385e-02
2.148983627557754517e-02
2.825388871133327484e-02
2.163319295505061746e-04
-9.316241485066711903e-04
1.445537507534027100e-01
-1.870786398649215698e-02
3.366316482424736023e-02
5.413292907178401947e-03
-1.115722302347421646e-02
-3.385190153494477272e-03
-8.261958719231188297e-04
3.125105798244476318e-02
6.431545130908489227e-03
1.527541130781173706e-01
-2.062131166458129883e-01
2.164324745535850525e-02
4.896590486168861389e-03
-3.510324656963348389e-02
1.675175875425338745e-02
-1.651335060596466064e-01
-2.836547419428825378e-02
-4.509938880801200867e-03
1.911464333534240723e-02
1.561273075640201569e-02
1.281816512346267700e-01
-6.350822001695632935e-02
-1.753337867558002472e-02
7.577832322567701340e-03
3.041195496916770935e-02
1.294331252574920654e-01
-3.240614756941795349e-02
-3.262466192245483398e-02
3.649181919172406197e-03
-3.213179856538772583e-02
-8.507608436048030853e-04
-3.046085592359304428e-03
-1.011714991182088852e-02
1.853312365710735321e-02
8.651776239275932312e-03
-1.652495004236698151e-02
-1.386502198874950409e-02
1.252201851457357407e-02
-8.599798311479389668e-04
3.730718791484832764e-02
-2.437705406919121742e-03
-9.299300611019134521e-03
-8.441760390996932983e-02
-1.041579246520996094e-02
-4.348459478933364153e-04
-4.689776152372360229e-02
2.528700232505798340e-02
7.289154920727014542e-03
-3.590791299939155579e-02
3.806543769314885139e-03
7.837871089577674866e-03
-1.263661775738000870e-02
-1.156678516417741776e-02
1.305191032588481903e-02
-2.555730054154992104e-03
1.819950714707374573e-02
-1.190051157027482986e-02
-1.147744432091712952e-02
-2.507125493139028549e-03
1.236539799720048904e-02
-3.040624223649501801e-02
1.186238508671522141e-02
-3.851104120258241892e-04
