-8.132763905450701714e-04
8.424074039794504642e-04
1.057753339409828186e-03
3.966125659644603729e-04
-4.727802879642695189e-04
7.146234274841845036e-04
-8.682900224812328815e-04
7.562895771116018295e-04
6.803350406698882580e-04
8.319274638779461384e-04
-1.307047205045819283e-03
5.912701017223298550e-04
3.583107027225196362e-04
2.410170389339327812e-03
1.367958262562751770e-03
8.505876758135855198e-04
-1.443463843315839767e-04
8.052132325246930122e-04
2.913809148594737053e-04
-7.384596019983291626e-02
2.350158989429473877e-02
-2.435405924916267395e-02
1.139022484421730042e-01
-2.134797396138310432e-03
1.705393940210342407e-01
-9.082937985658645630e-02
8.566348254680633545e-02
1.046464145183563232e-01
4.844779893755912781e-02
-7.560861762613058090e-03
1.011048406362533569e-01
8.627203293144702911e-03
3.783270344138145447e-02
8.707537502050399780e-02
1.840176619589328766e-02
7.718597073107957840e-03
1.150060668587684631e-01
-6.594103761017322540e-03
-2.949807792901992798e-02
1.990362629294395447e-02
3.094853833317756653e-02
-2.567830309271812439e-02
-2.809831500053405762e-02
-9.443297237157821655e-02
8.573123067617416382e-02
-3.921137005090713501e-02
-5.472926422953605652e-02
-6.149552762508392334e-02
1.943599991500377655e-02
-4.069488868117332458e-02
-2.536592073738574982e-02
-8.741975575685501099e-02
1.457118615508079529e-02
-4.414418339729309082e-02
9.075483307242393494e-03
-5.072351172566413879e-02
2.272488083690404892e-03
6.158060580492019653e-02
-1.231381786055862904e-03
-6.348074227571487427e-02
2.136911824345588684e-02
-3.162005171179771423e-02
2.820120751857757568e-02
-4.843271523714065552e-02
8.617162238806486130e-04
2.514135092496871948e-02
1.595878228545188904e-02
-6.893037352710962296e-03
1.066247653216123581e-02
1.626880839467048645e-02
7.568309665657579899e-04
-1.690806355327367783e-03
4.626927897334098816e-02
-1.401209039613604546e-03
2.824028022587299347e-02
-6.178685929626226425e-03
-2.086121737957000732e-01
-3.434976190328598022e-02
-4.701230302453041077e-02
1.343573480844497681e-01
-1.356618255376815796e-01
-5.578795447945594788e-02
2.476580291986465454e-01
-6.175311654806137085e-02
2.311808429658412933e-02
2.198204211890697479e-02
-3.977863118052482605e-03
3.069415129721164703e-02
4.785341210663318634e-03
-2.273977100849151611e-01
-2.410064935684204102e-01
1.256427168846130371e-01
5.525910481810569763e-02
3.446910763159394264e-03
6.297026295214891434e-03
-7.690255343914031982e-02
3.974740952253341675e-02
-2.434044703841209412e-02
1.342462748289108276e-01
9.764101356267929077e-03
1.587465703487396240e-01
-2.916180528700351715e-02
7.075433433055877686e-02
8.580888062715530396e-02
2.225882932543754578e-02
2.805824158713221550e-03
9.873092174530029297e-02
-3.306018421426415443e-03
6.223490834236145020e-02
4.542163386940956116e-02
2.110556513071060181e-02
8.172441739588975906e-04
8.091002702713012695e-02
-3.032861859537661076e-04
-1.326322555541992188e-01
-1.545513048768043518e-02
-3.299927338957786560e-02
8.307228982448577881e-02
7.643622905015945435e-02
5.241171270608901978e-02
1.917053759098052979e-01
-2.683368884027004242e-02
-1.872233301401138306e-02
3.267775848507881165e-02
-1.099450327455997467e-02
6.838870234787464142e-03
1.408991497009992599e-02
2.858271263539791107e-02
9.912392497062683105e-02
-3.312844783067703247e-02
-2.850982174277305603e-02
-3.493642434477806091e-02
2.408948354423046112e-02
-1.595888752490282059e-04
-3.432136145420372486e-04
2.726201782934367657e-04
4.561749519780278206e-04
-6.244293181225657463e-04
1.522263191873207688e-04
2.224203626610687934e-06
1.481519575463607907e-04
3.502451872918754816e-04
2.561960136517882347e-04
-1.578129058543709107e-06
2.179278380936011672e-04
-2.318658807780593634e-04
-3.126592491753399372e-04
3.032423846889287233e-04
5.247207009233534336e-04
5.847864667885005474e-04
2.094520605169236660e-04
-3.002113371621817350e-04
-8.101023733615875244e-02
-7.548100501298904419e-02
7.993892580270767212e-02
-3.333268687129020691e-02
-3.397205099463462830e-02
-3.062474168837070465e-02
-5.779281258583068848e-02
2.110629715025424957e-02
2.888903021812438965e-02
5.360458046197891235e-02
-5.576485302299261093e-03
-1.702060806564986706e-03
1.207721699029207230e-02
-2.798582985997200012e-02
1.904453523457050323e-02
5.633319541811943054e-02
1.773154176771640778e-02
3.800093755125999451e-02
-1.203525997698307037e-02
-1.083639487624168396e-01
4.217384755611419678e-02
-2.498375624418258667e-02
1.557474434375762939e-01
-3.336632158607244492e-03
1.562783420085906982e-01
-1.646393164992332458e-02
7.858907431364059448e-02
9.932406246662139893e-02
2.448581904172897339e-02
3.350117709487676620e-03
1.133422479033470154e-01
-6.831519771367311478e-03
3.935040906071662903e-02
3.698247298598289490e-02
2.588974125683307648e-02
8.148912340402603149e-03
8.645204454660415649e-02
3.718228777870535851e-03
-7.473666965961456299e-02
2.321033924818038940e-02
-2.449308708310127258e-02
1.154774278402328491e-01
-3.214582102373242378e-03
1.758215129375457764e-01
-9.686137735843658447e-02
8.851949125528335571e-02
1.079496592283248901e-01
5.123766511678695679e-02
-8.775370195508003235e-03
1.040365621447563171e-01
1.026426721364259720e-02
4.162200167775154114e-02
8.639791607856750488e-02
2.059243619441986084e-02
7.606076542288064957e-03
1.188900023698806763e-01
-6.929646711796522141e-03
4.955008253455162048e-02
5.902329459786415100e-03
2.556972205638885498e-02
-3.576188161969184875e-02
-2.409197622910141945e-03
-1.239548027515411377e-01
1.205827742815017700e-01
-5.566671863198280334e-02
-5.484655499458312988e-02
-7.270240783691406250e-02
3.598148748278617859e-02
-4.871487990021705627e-02
-5.983258411288261414e-02
-8.396247774362564087e-02
3.782830014824867249e-02
-3.356303647160530090e-02
5.153376609086990356e-03
-1.081347391009330750e-01
1.033792365342378616e-02
-3.535681590437889099e-02
-4.802595078945159912e-02
2.632340975105762482e-02
2.912679687142372131e-02
-2.531877718865871429e-02
2.402713894844055176e-02
-3.498710319399833679e-02
2.571055479347705841e-02
3.623650223016738892e-02
4.200482368469238281e-02
-4.469094856176525354e-04
1.868703961372375488e-02
2.486007520928978920e-03
-1.397830247879028320e-01
5.784939602017402649e-02
3.472900763154029846e-02
2.260144986212253571e-02
3.083989769220352173e-02
-8.489716798067092896e-03
-3.842334263026714325e-04
-1.118121203035116196e-03
-5.270712426863610744e-04
5.844394909217953682e-04
-2.616012236103415489e-03
-1.139494270319119096e-04
5.999175482429563999e-04
-4.112460592295974493e-04
2.408231812296435237e-04
4.317683633416891098e-04
6.966255023144185543e-04
1.146057547884993255e-04
-4.550051817204803228e-04
5.383421666920185089e-04
-5.188821814954280853e-04
2.061620121821761131e-03
-2.357908757403492928e-03
1.401655608788132668e-04
1.855164300650358200e-03
4.985456913709640503e-02
-8.967996574938297272e-03
-1.490101516246795654e-01
1.234130784869194031e-01
-1.281207352876663208e-01
-3.800706937909126282e-02
2.348669022321701050e-01
-9.748321026563644409e-02
-3.786959871649742126e-02
-3.324140980839729309e-02
1.253047212958335876e-02
-4.358936846256256104e-02
-1.943615823984146118e-02
-4.566310346126556396e-01
-1.819127239286899567e-02
1.025088652968406677e-01
2.041957713663578033e-02
-7.374631613492965698e-02
9.979614056646823883e-03
9.553296864032745361e-02
3.267567604780197144e-02
1.889626681804656982e-02
-8.166667073965072632e-02
-1.259640753269195557e-01
-5.379011109471321106e-02
-1.840620338916778564e-01
2.962495945394039154e-02
3.380865976214408875e-02
-4.361166432499885559e-02
1.145603321492671967e-02
-1.361039583571255207e-03
-1.392636448144912720e-02
-5.049917101860046387e-02
-1.437661945819854736e-01
4.512928426265716553e-02
4.651120305061340332e-02
3.077254071831703186e-02
-3.074782900512218475e-02
7.473903149366378784e-02
-2.477152459323406219e-02
2.493998967111110687e-02
-1.203897520899772644e-01
2.817522734403610229e-03
-1.826446503400802612e-01
1.056693643331527710e-01
-9.371360391378402710e-02
-1.128771677613258362e-01
-5.269294604659080505e-02
8.959793485701084137e-03
-1.081506162881851196e-01
-1.056772004812955856e-02
-4.704138264060020447e-02
-9.944088757038116455e-02
-1.820654422044754028e-02
-5.055236630141735077e-03
-1.254431307315826416e-01
4.626076668500900269e-03
-2.420101873576641083e-02
7.690934836864471436e-02
4.378318414092063904e-02
-1.115803644061088562e-01
6.026552617549896240e-02
-6.838511675596237183e-02
8.693647384643554688e-02
-3.781174123287200928e-02
-7.937812060117721558e-02
-7.586254179477691650e-02
4.627597518265247345e-03
-4.164665192365646362e-02
-1.374961901456117630e-02
1.331587582826614380e-01
-1.845266371965408325e-01
-5.570929124951362610e-02
-1.642555743455886841e-02
-5.945818126201629639e-02
1.264677941799163818e-02
1.115136547014117241e-03
-2.482381241861730814e-04
3.274162590969353914e-04
-1.023276709020137787e-03
3.221957013010978699e-03
-6.315577193163335323e-04
4.012183635495603085e-04
-2.569041098468005657e-04
-8.273661951534450054e-04
-1.051259809173643589e-03
1.013847067952156067e-03
-7.660896517336368561e-04
-1.675436651566997170e-04
-2.658748067915439606e-03
-1.629447098821401596e-03
-3.110086079686880112e-03
2.809521043673157692e-03
-1.019522547721862793e-03
-2.409269567579030991e-03
-2.066615410149097443e-02
-3.787225484848022461e-02
5.584818869829177856e-02
-5.484993103891611099e-03
2.481130138039588928e-02
6.255197525024414062e-02
-1.330707967281341553e-01
6.760254502296447754e-02
5.648674815893173218e-02
6.687176972627639771e-02
-1.775629445910453796e-02
3.673529997467994690e-02
1.530794985592365265e-02
5.748412013053894043e-02
9.729441255331039429e-02
-2.561099268496036530e-02
3.237982746213674545e-03
5.360126867890357971e-02
-2.990415785461664200e-03
-3.227575123310089111e-02
-5.514726042747497559e-02
3.359033912420272827e-02
1.204869151115417480e-02
9.534407407045364380e-03
2.382250688970088959e-02
-8.820962905883789062e-02
3.589781001210212708e-02
4.667861759662628174e-02
6.574235111474990845e-02
-2.057440765202045441e-02
2.602783590555191040e-02
1.859418489038944244e-02
4.718394204974174500e-02
1.079934090375900269e-01
-2.313359640538692474e-02
-4.803074523806571960e-03
4.606973752379417419e-02
-1.211413531564176083e-03
-6.866448372602462769e-02
2.134170569479465485e-02
-2.382353693246841431e-02
1.080386564135551453e-01
-1.451247720979154110e-03
1.575406789779663086e-01
-8.093642443418502808e-02
7.882858067750930786e-02
9.716500341892242432e-02
4.436152800917625427e-02
-5.886689759790897369e-03
9.338148683309555054e-02
6.358567159622907639e-03
2.807375602424144745e-02
8.653237670660018921e-02
1.608446240425109863e-02
6.804807577282190323e-03
1.060793399810791016e-01
-5.226411391049623489e-03
1.012542247772216797e-01
-4.100051149725914001e-02
2.695758081972599030e-02
-1.363109499216079712e-01
1.373028382658958435e-03
-1.542721092700958252e-01
1.701655238866806030e-02
-7.471419870853424072e-02
-9.202005714178085327e-02
-2.148512192070484161e-02
-2.665412845090031624e-03
-1.051223799586296082e-01
5.617142654955387115e-03
-3.308668360114097595e-02
-5.447399988770484924e-02
-1.121866796165704727e-02
-6.748124957084655762e-03
-8.373578637838363647e-02
-3.366577206179499626e-03
-6.362372078001499176e-03
5.801380425691604614e-02
-2.409640885889530182e-02
-2.995429560542106628e-02
-7.678938563913106918e-03
-4.141885042190551758e-02
1.185561344027519226e-01
-4.620365798473358154e-02
-5.385988205671310425e-02
-6.838154047727584839e-02
1.930035650730133057e-02
-2.642475441098213196e-02
-1.860374957323074341e-02
-4.009744152426719666e-02
-1.512496620416641235e-01
3.311862796545028687e-02
1.769832218997180462e-03
-4.161798581480979919e-02
2.135401591658592224e-03
7.351596653461456299e-02
1.620082929730415344e-02
-4.853255301713943481e-02
6.837588269263505936e-03
-7.504750974476337433e-03
1.461823284626007080e-02
-5.271926894783973694e-02
5.452854093164205551e-03
1.882811821997165680e-02
-9.170498233288526535e-04
-1.252109301276504993e-03
6.449185311794281006e-03
6.800662260502576828e-03
2.961052022874355316e-02
-1.951212063431739807e-02
3.235211223363876343e-02
-7.433293852955102921e-03
1.908739097416400909e-02
-4.679183010011911392e-03
1.904453039169311523e-01
1.032397598028182983e-01
-1.403518766164779663e-01
5.802118405699729919e-02
-4.303872957825660706e-02
1.166237071156501770e-01
-1.361695080995559692e-01
3.994749858975410461e-02
6.350564956665039062e-02
-3.005635179579257965e-02
1.586654223501682281e-03
4.150481894612312317e-02
-1.080918405205011368e-02
-1.040781736373901367e-01
8.165552467107772827e-02
6.474715191870927811e-03
-9.040618169819936156e-05
6.440438330173492432e-02
-2.158028446137905121e-02
-6.941172480583190918e-02
2.198628894984722137e-02
-2.348897792398929596e-02
1.080624759197235107e-01
-2.134042326360940933e-03
1.590557396411895752e-01
-8.302091062068939209e-02
7.984834909439086914e-02
9.792233258485794067e-02
4.472535103559494019e-02
-6.237565539777278900e-03
9.434711188077926636e-02
6.793404929339885712e-03
2.990066260099411011e-02
8.543928712606430054e-02
1.606855168938636780e-02
7.334015797823667526e-03
1.075634136795997620e-01
-5.699345842003822327e-03
-1.833496242761611938e-01
1.389638520777225494e-02
1.459050923585891724e-01
-1.117607131600379944e-01
5.342091619968414307e-02
8.594072423875331879e-03
8.335271477699279785e-02
6.473248451948165894e-02
-2.881830558180809021e-02
2.157636918127536774e-02
-4.572755191475152969e-03
-1.920548453927040100e-02
2.725991653278470039e-03
1.962751150131225586e-01
-6.519745588302612305e-01
2.120688259601593018e-01
7.291590794920921326e-03
-5.327778402715921402e-03
2.940659783780574799e-02
1.506557874381542206e-02
-1.136849448084831238e-02
-9.753409773111343384e-02
7.837892323732376099e-02
-1.132910102605819702e-01
-3.563269600272178650e-02
2.085668146610260010e-01
-9.760890156030654907e-02
-5.371494591236114502e-02
-4.054103046655654907e-02
2.459158003330230713e-02
-3.185729682445526123e-02
-1.850893720984458923e-02
-3.297880589962005615e-01
-1.033777147531509399e-01
1.330603361129760742e-01
1.729825884103775024e-02
-6.402499228715896606e-02
-8.045009337365627289e-03
1.920568197965621948e-01
-3.422923013567924500e-02
3.928359597921371460e-03
-3.855344280600547791e-02
-4.647599533200263977e-02
-5.900757014751434326e-02
-2.560094594955444336e-01
4.021715372800827026e-02
3.256608918309211731e-02
1.959984563291072845e-02
4.891698714345693588e-03
-2.729778923094272614e-02
-8.165417239069938660e-03
-8.182017505168914795e-02
6.265949457883834839e-03
5.944081023335456848e-02
7.803838700056076050e-03
2.936431951820850372e-02
-3.800350055098533630e-02
3.819392621517181396e-02
5.715433508157730103e-02
-9.892701171338558197e-03
-4.077424854040145874e-02
3.779127076268196106e-02
-4.046529531478881836e-03
-6.465869955718517303e-03
1.113047543913125992e-02
-6.763966754078865051e-03
-3.744180500507354736e-02
1.030771341174840927e-02
2.283180831000208855e-03
-1.098144613206386566e-02
1.057426333427429199e-01
-1.577939242124557495e-01
-2.768461359664797783e-03
-4.373185336589813232e-03
-2.587349712848663330e-02
6.123896688222885132e-03
5.487408998305909336e-05
-8.664889173815026879e-05
5.861241152160800993e-05
5.898123490624129772e-04
1.919435599120333791e-04
3.437281120568513870e-04
-3.665093099698424339e-04
2.004014386329799891e-04
5.985244060866534710e-04
7.195935904746875167e-05
-2.894743229262530804e-04
3.997395688202232122e-04
1.587815204402431846e-04
-4.011518030893057585e-04
6.756352959200739861e-04
4.216129018459469080e-04
1.219569021486677229e-04
2.625911729410290718e-04
-1.227433385793119669e-04
