-2.056989615084603429e-06
5.285523002385161817e-05
-3.285043567302636802e-05
6.741879769833758473e-05
-9.931629028869792819e-05
-3.405168899917043746e-05
-1.163282468041870743e-05
-1.141168127105629537e-06
-2.069569745799526572e-05
-8.906381845008581877e-05
5.201876410865224898e-05
1.231260466738604009e-05
-4.724154496216215193e-05
-3.321447366033680737e-06
-1.380909725412493572e-05
-2.073631731036584824e-05
-4.965935659129172564e-05
-4.798763256985694170e-06
-3.341106548759853467e-06
8.895674909581430256e-06
-5.488976057677064091e-06
5.389778016251511872e-05
6.713045877404510975e-05
5.342934400687227026e-06
7.798855222063139081e-05
5.677274384652264416e-05
5.383686948334798217e-05
-3.517414734233170748e-05
-8.811811312625650316e-06
5.359582064556889236e-05
1.487177723902277648e-05
-1.354238321482625906e-07
-1.082607923308387399e-04
4.256404470652341843e-03
-7.395868189632892609e-03
2.364133251830935478e-04
2.685782092157751322e-04
1.399254892021417618e-02
2.494926797226071358e-03
1.533881295472383499e-04
-1.205585896968841553e-03
2.959710732102394104e-02
4.585139919072389603e-03
-3.023957833647727966e-03
-1.009211919154040515e-04
8.108707843348383904e-04
-2.354885218665003777e-03
-3.518387675285339355e-03
-4.025766626000404358e-03
-3.844558494165539742e-03
4.880123306065797806e-04
3.585264552384614944e-03
2.711836714297533035e-03
4.106245934963226318e-03
-1.911818049848079681e-02
-2.773610875010490417e-03
3.776273690164089203e-03
5.523053463548421860e-03
4.041708074510097504e-03
5.987923126667737961e-03
-2.487147459760308266e-03
-2.933461684733629227e-03
2.213865285739302635e-03
-7.287400658242404461e-04
6.287188152782618999e-04
-9.879192337393760681e-03
4.639341495931148529e-03
6.225388497114181519e-04
1.293412782251834869e-02
-4.839096218347549438e-03
1.717818668112158775e-03
1.426893431926146150e-04
-8.112369105219841003e-04
5.813631229102611542e-03
-9.972020983695983887e-03
-4.627104499377310276e-04
-3.588376566767692566e-03
2.098835393553599715e-04
4.807612393051385880e-03
-1.095855492167174816e-03
1.052675582468509674e-02
6.557100918143987656e-03
-7.638078532181680202e-04
-5.516568664461374283e-03
-3.828699467703700066e-03
-9.536056779325008392e-03
2.074608346447348595e-03
4.328849259763956070e-03
-4.065986431669443846e-04
-1.005875691771507263e-02
-9.640969336032867432e-03
3.350033657625317574e-03
4.458480980247259140e-03
-1.974280225113034248e-03
1.511663664132356644e-03
-6.319874501059530303e-06
1.348805497400462627e-03
-1.110907271504402161e-02
8.845792151987552643e-03
-1.177406683564186096e-02
9.742395952343940735e-03
-1.605322584509849548e-02
-4.038328770548105240e-03
4.075495817232877016e-04
9.956764988601207733e-03
-7.218060549348592758e-03
-1.119158230721950531e-02
7.871245034039020538e-03
6.407609209418296814e-03
5.156999686732888222e-04
-1.468892768025398254e-02
5.705674644559621811e-03
1.163789909332990646e-02
-4.135793540626764297e-03
-1.770462491549551487e-03
1.090843230485916138e-02
1.483966223895549774e-02
-1.078271120786666870e-02
8.536720648407936096e-03
-1.508157420903444290e-02
-1.144290342926979065e-02
-1.898004487156867981e-02
-1.084932871162891388e-02
-3.228351939469575882e-03
-1.566709391772747040e-02
1.943418406881392002e-03
-1.250968407839536667e-02
1.322437310591340065e-04
-2.546411997172981501e-04
9.797774255275726318e-03
1.647667773067951202e-02
-1.937538268975913525e-03
-5.923793185502290726e-03
-7.292181253433227539e-03
-5.581865087151527405e-02
-3.890326297550927848e-06
3.504997864365577698e-02
-2.186352200806140900e-02
1.022155582904815674e-02
1.783114112913608551e-02
1.629295200109481812e-02
2.317111502634361386e-04
-2.173224650323390961e-02
6.397531926631927490e-02
-1.029484253376722336e-02
-2.300062403082847595e-02
1.429305411875247955e-04
1.473219599574804306e-02
1.677127741277217865e-02
9.056810289621353149e-03
6.974839605391025543e-03
-1.864535734057426453e-02
-9.453032980673015118e-04
5.002195830456912518e-04
9.090859442949295044e-03
-4.227929189801216125e-02
-1.492004375904798508e-02
5.780463665723800659e-02
-2.142063900828361511e-02
-1.857693277997896075e-04
1.179371611215174198e-03
8.304968476295471191e-02
-8.259587921202182770e-03
-5.782565474510192871e-02
-1.076250337064266205e-03
-5.171552300453186035e-01
-7.832636684179306030e-02
5.960222915746271610e-04
1.006214842200279236e-01
-2.017249464988708496e-01
9.105592221021652222e-02
4.031779989600181580e-02
4.893802851438522339e-02
-8.631381788291037083e-04
-1.457301229238510132e-01
1.072850450873374939e-01
-9.877841919660568237e-02
-8.942582458257675171e-02
3.468701906967908144e-04
9.329634904861450195e-02
1.083518117666244507e-01
7.061786204576492310e-02
-2.239827066659927368e-02
-1.108580082654953003e-01
-5.179294198751449585e-02
-1.587869040668010712e-02
7.388506084680557251e-02
-4.524523764848709106e-02
-1.278015673160552979e-01
9.933008998632431030e-02
-1.059978157281875610e-01
9.315305505879223347e-04
-2.114202361553907394e-04
6.463875062763690948e-03
4.139461088925600052e-03
-2.019685227423906326e-03
-3.054192755371332169e-03
-6.529366970062255859e-02
-3.612918034195899963e-02
-7.486337563022971153e-05
1.400256156921386719e-02
-3.825192153453826904e-02
6.599756423383951187e-03
1.712340489029884338e-02
4.915911238640546799e-03
-6.383051368175074458e-05
-1.316657476127147675e-02
4.114466160535812378e-02
-6.855098996311426163e-03
-1.056755241006612778e-02
1.792387192836031318e-04
8.812326006591320038e-03
1.008020993322134018e-02
5.910596344619989395e-03
3.487948328256607056e-03
-1.107922196388244629e-02
8.526015444658696651e-04
1.275877282023429871e-02
5.790038965642452240e-03
-2.511789090931415558e-02
-1.074332930147647858e-02
4.562263190746307373e-02
-9.749127551913261414e-03
8.237367728725075722e-05
-1.493234549343469553e-07
-1.229937083735421766e-06
-1.483396545154391788e-06
4.368781446828506887e-06
1.648460425940356799e-07
4.847908712690696120e-06
6.818737347202841192e-06
1.894082046760559024e-08
-4.847439413424581289e-06
7.477300187019864097e-06
-1.722545221127802506e-06
-2.632722271300735883e-06
3.564517214726947714e-08
-8.682151531047566095e-08
6.183367986523080617e-06
-4.881272616330534220e-06
2.520618636481231079e-06
3.796686769419466145e-06
-4.507060680225549731e-07
-3.804447260336019099e-06
-4.212284238747088239e-06
-6.156648169053369202e-08
-1.747932174112065695e-06
5.398710527515504509e-06
2.801718437694944441e-06
3.765432893487741239e-06
-2.681316857433557743e-07
6.149383352749282494e-06
5.918603619647910818e-06
-5.255850737739820033e-06
3.257733851569355465e-06
6.751336822929943082e-09
-2.558591077104210854e-04
-5.235609598457813263e-03
1.778410561382770538e-02
-8.048169314861297607e-03
2.428500913083553314e-02
-2.538362517952919006e-02
-2.310491167008876801e-02
-1.310869411099702120e-04
2.496310696005821228e-02
-1.079174224287271500e-02
-5.365560762584209442e-03
1.161403674632310867e-02
9.569528512656688690e-03
1.539394579594954848e-04
-4.839278291910886765e-03
3.451348096132278442e-02
5.749616771936416626e-03
-6.197590380907058716e-03
1.018684997688978910e-04
1.758823520503938198e-03
5.193137098103761673e-03
-5.054843612015247345e-03
1.951520331203937531e-03
-5.135757848620414734e-03
-8.407113142311573029e-03
-2.380016632378101349e-02
-5.186737980693578720e-03
-3.064364660531282425e-03
-2.117778349202126265e-04
1.090108510106801987e-02
-1.440253667533397675e-02
2.818036045937333256e-05
-4.635853110812604427e-04
6.003697961568832397e-02
-6.497483700513839722e-02
1.905378699302673340e-02
-4.521974548697471619e-02
-1.145710870623588562e-01
4.839429259300231934e-02
-1.133432670030742884e-04
1.253107190132141113e-02
-1.977110952138900757e-01
6.594374775886535645e-02
-2.514007873833179474e-02
6.775544490665197372e-03
1.168927061371505260e-03
-6.024116277694702148e-02
-2.833895944058895111e-02
-7.107458263635635376e-02
-5.398806929588317871e-02
4.828063247259706259e-04
4.709262028336524963e-02
6.622524559497833252e-02
4.292679205536842346e-02
1.740086823701858521e-02
-5.392169207334518433e-02
7.176800165325403214e-03
8.978794515132904053e-02
3.620765730738639832e-02
-6.676917523145675659e-02
-7.969126850366592407e-02
-1.645358838140964508e-02
-3.030565194785594940e-02
-1.330598257482051849e-03
-1.536309573566541076e-04
2.701981691643595695e-03
-6.881313864141702652e-03
-5.419631488621234894e-04
1.643167226575314999e-03
1.569397374987602234e-02
3.572259563952684402e-03
1.486159308115020394e-04
-2.144330646842718124e-03
3.344539552927017212e-02
2.986512612551450729e-03
-1.347051234915852547e-03
-9.037291747517883778e-04
7.943003438413143158e-04
-6.487232167273759842e-04
-4.697715397924184799e-03
-2.283530309796333313e-03
-2.619552426040172577e-03
5.928355385549366474e-04
2.370417583733797073e-03
1.602576696313917637e-03
2.683985279873013496e-03
-2.041831612586975098e-02
-1.442558597773313522e-03
3.782081650570034981e-03
4.901211243122816086e-03
2.585293957963585854e-03
8.355374448001384735e-03
-8.375025354325771332e-04
-4.391914233565330505e-03
3.191486466675996780e-03
-7.617551018483936787e-04
1.262765959836542606e-03
-3.629873692989349365e-02
1.759340800344944000e-02
-1.030702423304319382e-02
3.382178395986557007e-02
1.406541652977466583e-02
1.223561726510524750e-02
2.515384403523057699e-04
-1.304022222757339478e-02
4.727560281753540039e-02
-3.746094927191734314e-02
2.649834938347339630e-02
-1.013959757983684540e-02
6.454140529967844486e-04
3.423430770635604858e-02
-1.357057411223649979e-02
3.986333683133125305e-02
2.530780062079429626e-02
-1.747717498801648617e-03
-2.419966086745262146e-02
-2.063361741602420807e-02
-3.348124027252197266e-02
-8.713530376553535461e-03
2.468592673540115356e-02
-6.786526646465063095e-03
-2.343611791729927063e-02
-3.404572978615760803e-02
3.945649415254592896e-02
3.178086131811141968e-02
-2.141398005187511444e-02
1.175514515489339828e-02
2.406988824077416211e-05
-8.111334318527951837e-05
1.330306404270231724e-03
1.009950600564479828e-02
-1.157625392079353333e-02
1.165834441781044006e-02
-1.747440546751022339e-02
-6.332660093903541565e-03
-2.540130226407200098e-04
1.386080030351877213e-02
-1.034299191087484360e-02
1.378232846036553383e-03
9.666486643254756927e-03
1.277484837919473648e-02
-6.549503304995596409e-04
6.533070001751184464e-03
1.053938828408718109e-02
-1.243113307282328606e-03
-1.613854430615901947e-02
5.289025139063596725e-04
1.078681834042072296e-02
1.315030734986066818e-02
1.161774503998458385e-03
-1.778706791810691357e-03
-1.420566719025373459e-02
-1.139070559293031693e-02
-6.800630129873752594e-03
1.148280571214854717e-03
-1.528779603540897369e-02
-4.249930847436189651e-03
5.457439692690968513e-04
-1.648613438010215759e-02
9.877404227154329419e-05
3.532194341460126452e-07
2.947112807305529714e-05
-1.671859081397997215e-06
5.416797648649662733e-06
-3.725616988958790898e-05
-5.813601819681935012e-05
7.122633178369142115e-06
1.055291463103458227e-07
3.588854087865911424e-05
-2.274611688335426152e-05
3.142522109556011856e-05
2.892835254897363484e-06
5.798165511805564165e-05
3.669266845918173203e-07
-5.297284224070608616e-05
3.064402108066133223e-06
-3.584564547054469585e-05
-3.134177313768304884e-05
-2.660892732819775119e-06
3.534642382874153554e-05
3.604729863582178950e-05
2.680712896108161658e-05
-3.465686313575133681e-05
-4.108879147679544985e-05
4.227201770845567808e-06
4.906492904410697520e-05
2.686345032998360693e-05
-1.806199179554823786e-05
-5.057248563389293849e-05
-1.210674599860794842e-05
-5.388737918110564351e-05
-6.379646322329790564e-08
8.528549806214869022e-04
-1.871354505419731140e-02
1.188333798199892044e-02
3.386315423995256424e-03
6.143699400126934052e-03
2.569395350292325020e-03
-1.922824047505855560e-02
4.548693541437387466e-04
8.727999404072761536e-03
1.237561181187629700e-02
-1.896622218191623688e-02
1.198568381369113922e-02
-4.426936153322458267e-03
1.364360563457012177e-03
-5.488132592290639877e-04
2.310521528124809265e-02
2.004862204194068909e-02
8.807517588138580322e-03
-1.856242422945797443e-03
-1.167218945920467377e-02
-6.792254280298948288e-03
-1.761043258011341095e-02
5.430983379483222961e-03
7.348289247602224350e-03
2.700592391192913055e-03
-1.521361432969570160e-02
-1.787875033915042877e-02
-1.588227413594722748e-02
8.379189297556877136e-03
1.700313575565814972e-02
-1.928012585267424583e-03
4.684421946876682341e-05
-2.808778954204171896e-04
2.364089246839284897e-03
6.144957151263952255e-03
3.213699441403150558e-03
-2.194167813286185265e-03
-7.594221830368041992e-02
-5.412108078598976135e-02
-8.820359653327614069e-05
1.515265088528394699e-02
-4.454800859093666077e-02
2.500676549971103668e-03
1.786663196980953217e-02
3.453306155279278755e-03
2.193486579926684499e-04
-9.919472038745880127e-03
6.504153460264205933e-02
-2.973523223772644997e-03
-8.332580327987670898e-03
-2.009254094446077943e-04
5.071139894425868988e-03
5.637731868773698807e-03
1.921849907375872135e-03
9.151260368525981903e-03
-7.268164772540330887e-03
5.913475994020700455e-03
2.319617383182048798e-02
1.731403288431465626e-03
-3.527992591261863708e-02
-6.426553707569837570e-03
5.827053636312484741e-02
-6.515699904412031174e-03
1.916993496706709266e-04
-2.449078892823308706e-04
2.159103751182556152e-03
-7.061894051730632782e-03
-7.776637794449925423e-04
2.251672558486461639e-03
1.694600842893123627e-02
3.984014037996530533e-03
1.358772424282506108e-04
-2.670886693522334099e-03
3.658523783087730408e-02
2.433881629258394241e-03
-9.857547702267765999e-04
-1.231660484336316586e-03
8.228890364989638329e-04
1.026937243295833468e-04
-5.201360676437616348e-03
-1.628920785151422024e-03
-2.177897142246365547e-03
7.095708278939127922e-04
1.935498905368149281e-03
1.165039138868451118e-03
2.209756989032030106e-03
-2.145034633576869965e-02
-8.955282974056899548e-04
4.188045393675565720e-03
4.998814314603805542e-03
2.090895548462867737e-03
9.751427918672561646e-03
-1.305810728808864951e-04
-5.059316288679838181e-03
3.772077150642871857e-03
-8.055364014580845833e-04
-2.346856199437752366e-04
-1.186753157526254654e-02
1.189825590699911118e-02
-4.650776740163564682e-03
1.590843498706817627e-02
-7.609135005623102188e-03
-7.755115628242492676e-03
-3.032826061826199293e-04
1.149055454879999161e-02
4.476572852581739426e-03
-1.203798316419124603e-02
1.639850623905658722e-02
5.462899804115295410e-03
-8.079656399786472321e-04
1.511883921921253204e-02
1.005884911864995956e-02
1.287703029811382294e-02
-8.340671658515930176e-03
8.048565359786152840e-04
-3.775986144319176674e-03
2.620142186060547829e-03
-1.123196631669998169e-02
1.264412072487175465e-03
-3.121023532003164291e-03
-4.934398923069238663e-03
-1.216612290591001511e-02
-1.137195713818073273e-02
-2.170301787555217743e-02
1.143195293843746185e-02
5.254404619336128235e-03
-1.565334014594554901e-02
8.114117372315376997e-05
-1.001922737486893311e-05
8.760868513491004705e-05
-6.462484179792227224e-06
-3.470777664915658534e-05
-3.330432227812707424e-04
-7.587094296468421817e-05
-6.967493391130119562e-05
-1.580712023496744223e-06
1.239636476384475827e-04
-1.585919380886480212e-04
7.771849777782335877e-05
2.456797483318950981e-05
1.502676605014130473e-04
-9.376846719533205032e-06
-1.032616710290312767e-04
3.917625144822522998e-05
-6.243307871045544744e-05
-9.526286157779395580e-05
-1.158005488832714036e-05
7.895250746514648199e-05
9.302226681029424071e-05
1.196337470901198685e-04
-1.615354995010420680e-04
-6.226528785191476345e-05
2.687939922907389700e-05
2.613220422063022852e-04
1.143613772001117468e-04
-1.251637586392462254e-04
-6.713497714372351766e-05
4.371283648652024567e-05
-1.703310554148629308e-04
-1.459608483855845407e-06
1.291724853217601776e-03
-1.207727473229169846e-02
8.189034648239612579e-03
-1.262488309293985367e-02
9.373402222990989685e-03
-5.681124515831470490e-03
-3.924137912690639496e-03
3.639709902927279472e-04
5.662645213305950165e-03
9.458452463150024414e-03
-1.231936179101467133e-02
1.435982063412666321e-02
3.784691914916038513e-03
6.211496074683964252e-04
-2.465017605572938919e-03
5.265338346362113953e-03
1.330357138067483902e-02
4.416806914377957582e-04
-1.781732426024973392e-03
5.002663005143404007e-03
7.184846792370080948e-03
-1.124714966863393784e-02
-1.243619044544175267e-04
-6.544831674546003342e-03
-1.069902256131172180e-02
-1.294050086289644241e-02
-1.142844744026660919e-02
2.312046010047197342e-03
-4.700080491602420807e-03
9.779352694749832153e-05
-7.164226379245519638e-03
1.642073912080377340e-04
1.004147925414144993e-03
-2.115339227020740509e-02
1.322737988084554672e-02
-7.835485041141510010e-03
1.451914850622415543e-02
-1.243991404771804810e-02
-1.304488349705934525e-02
2.939716214314103127e-04
1.194531563669443130e-02
1.284760888665914536e-03
-2.151148580014705658e-02
1.834788173437118530e-02
7.444382645189762115e-04
6.420039571821689606e-04
-4.213729407638311386e-03
1.526893395930528641e-02
2.258674614131450653e-02
4.187215585261583328e-03
-1.523331156931817532e-03
-2.156763570383191109e-03
3.964980598539113998e-03
-2.004117518663406372e-02
1.081121712923049927e-02
-3.150634700432419777e-03
-6.948149297386407852e-03
-2.175731211900711060e-02
-2.024162001907825470e-02
-7.996589876711368561e-03
5.944515578448772430e-04
1.154625043272972107e-02
-1.089752465486526489e-02
1.275290269404649734e-04
1.593754132045432925e-05
5.541915073990821838e-03
-7.615257985889911652e-03
1.257076859474182129e-03
-1.242774887941777706e-03
9.795918129384517670e-03
1.171252806670963764e-03
1.659162953728809953e-04
-5.117865839565638453e-06
2.235671132802963257e-02
5.894049070775508881e-03
-4.929662682116031647e-03
7.359556620940566063e-04
7.656101952306926250e-04
-4.049384035170078278e-03
-2.048971131443977356e-03
-5.531704984605312347e-03
-4.862383473664522171e-03
3.024742181878536940e-04
4.582595080137252808e-03
3.733169054612517357e-03
5.254491232335567474e-03
-1.690394803881645203e-02
-4.001580178737640381e-03
3.520166501402854919e-03
5.802207626402378082e-03
5.229572299867868423e-03
2.969497581943869591e-03
-4.054927732795476913e-03
-1.209694775752723217e-03
8.843943942338228226e-04
-6.519592134281992912e-04
9.481246815994381905e-04
4.435506090521812439e-02
-4.136941861361265182e-03
-1.244226563721895218e-02
-1.833071000874042511e-02
-4.802083969116210938e-02
-1.631250232458114624e-02
5.494008655659854412e-04
2.876288443803787231e-02
-3.680308535695075989e-02
4.568111151456832886e-02
-2.505958545953035355e-03
2.388364262878894806e-02
1.023016404360532761e-03
-4.311494901776313782e-02
2.450637146830558777e-02
-4.715363681316375732e-02
-3.993985429406166077e-02
-2.181879477575421333e-03
3.780921176075935364e-02
3.505077585577964783e-02
4.092121869325637817e-02
-1.190091948956251144e-02
-3.958498314023017883e-02
-1.420109998434782028e-02
8.490136824548244476e-03
4.105364903807640076e-02
-4.483837261795997620e-02
-4.442128539085388184e-02
2.422926202416419983e-02
-2.567393891513347626e-02
5.570292705669999123e-04
9.702286333777010441e-04
-2.219754271209239960e-02
1.281694788485765457e-02
-6.811895407736301422e-03
1.299385912716388702e-02
-1.205409783869981766e-02
-1.241590082645416260e-02
2.915002114605158567e-04
1.042313687503337860e-02
3.222117898985743523e-03
-2.255290001630783081e-02
1.835010573267936707e-02
-6.730198947479948401e-05
5.216403515078127384e-04
-7.042662473395466805e-04
1.432778406888246536e-02
2.375961840152740479e-02
3.886440768837928772e-03
-1.377301407046616077e-03
-3.766130888834595680e-03
2.362603787332773209e-03
-2.103040926158428192e-02
9.653410874307155609e-03
-1.807071734219789505e-03
-5.961622577160596848e-03
-2.078315615653991699e-02
-2.124885842204093933e-02
-1.211007498204708099e-02
3.126306924968957901e-03
1.109377574175596237e-02
-1.020804792642593384e-02
1.420703483745455742e-04
7.635278161615133286e-04
2.261124551296234131e-03
8.986145257949829102e-03
-1.896416582167148590e-02
5.405559670180082321e-03
-2.536094561219215393e-02
-8.685479871928691864e-03
2.300821943208575249e-04
1.746248826384544373e-02
-1.231451705098152161e-02
2.340902807191014290e-03
1.772563345730304718e-02
1.570845209062099457e-02
1.146043650805950165e-04
-1.946989260613918304e-02
1.205950602889060974e-02
-2.217581262812018394e-03
-1.796363107860088348e-02
-8.084384026005864143e-04
2.342717349529266357e-02
2.680209279060363770e-02
2.047510119155049324e-03
1.700786640867590904e-03
-2.742318622767925262e-02
-1.640604250133037567e-02
-1.115313824266195297e-02
2.043868647888302803e-03
-1.384569238871335983e-02
-2.511344105005264282e-02
7.815430872142314911e-03
-2.225177362561225891e-02
9.078106086235493422e-05
-1.424577552825212479e-03
4.095918266102671623e-04
-2.154973801225423813e-03
1.171741914004087448e-02
-7.645225618034601212e-03
-2.207046560943126678e-02
-4.368990287184715271e-02
-4.705746541731059551e-04
2.483380772173404694e-02
-3.519829735159873962e-02
8.067146991379559040e-04
4.901593551039695740e-03
9.029192733578383923e-04
-3.707778159878216684e-05
-2.943470887839794159e-02
5.185520648956298828e-02
-8.105132728815078735e-04
-6.699770689010620117e-03
1.429788884706795216e-03
3.330430714413523674e-03
4.258275032043457031e-03
-2.695132861845195293e-04
1.666501164436340332e-02
-6.252594757825136185e-03
1.244745030999183655e-02
-9.862884180620312691e-04
-2.664493513293564320e-04
-1.592649705708026886e-02
-9.346049278974533081e-03
4.772266745567321777e-02
-4.728295374661684036e-03
-1.621257833903655410e-04
1.459265331504866481e-05
5.352525506168603897e-03
-7.653881330043077469e-03
1.057438203133642673e-03
-9.892840171232819557e-04
1.025093346834182739e-02
1.459814026020467281e-03
1.663401344558224082e-04
-2.308145049028098583e-04
2.365338616073131561e-02
5.701644811779260635e-03
-4.428557120263576508e-03
5.912965862080454826e-04
7.646299200132489204e-04
-3.763690823689103127e-03
-2.373358933255076408e-03
-5.300233606249094009e-03
-4.717445001006126404e-03
3.120033361483365297e-04
4.453266039490699768e-03
3.601433243602514267e-03
5.087872501462697983e-03
-1.765621639788150787e-02
-3.825099207460880280e-03
3.540570847690105438e-03
5.832372233271598816e-03
5.054706707596778870e-03
3.556232433766126633e-03
-3.809136338531970978e-03
-1.579509582370519638e-03
1.114129321649670601e-03
-6.580689805559813976e-04
1.055175904184579849e-03
-3.196953237056732178e-02
6.641475483775138855e-03
1.981562748551368713e-02
2.265328355133533478e-02
-4.616422951221466064e-02
-2.362816222012042999e-02
5.214588018134236336e-04
6.083504296839237213e-03
-1.549309398978948593e-02
-3.221096098423004150e-02
-2.117704832926392555e-03
-1.919937133789062500e-02
6.037724670022726059e-04
1.575755770318210125e-03
2.088597789406776428e-02
3.364593908190727234e-02
2.611736580729484558e-02
-1.294840360060334206e-03
-2.833242341876029968e-02
-2.280260063707828522e-02
-3.098958544433116913e-02
2.461721375584602356e-02
2.504091896116733551e-02
1.674658060073852539e-02
-2.762936428189277649e-02
-3.116956353187561035e-02
-2.411675406619906425e-03
2.290806919336318970e-02
3.519422933459281921e-02
8.845812641084194183e-03
7.439684850396588445e-05
1.488453475758433342e-03
-1.844293996691703796e-02
7.541949395090341568e-03
-2.438164548948407173e-03
2.188198734074831009e-03
-3.081234637647867203e-03
-1.084538083523511887e-02
6.771079497411847115e-04
5.145689938217401505e-03
1.423502620309591293e-02
-1.867204904556274414e-02
1.423710770905017853e-02
-5.609718151390552521e-03
1.704837777651846409e-03
-1.280394941568374634e-02
1.190381217747926712e-02
1.986704394221305847e-02
1.201450638473033905e-02
-2.689962275326251984e-03
-5.476458463817834854e-03
-1.639585476368665695e-03
-1.740735583007335663e-02
4.333881195634603500e-03
2.632392803207039833e-03
-1.005745609290897846e-03
-1.472649443894624710e-02
-1.764019764959812164e-02
-3.738872706890106201e-03
-2.564606955274939537e-03
1.026194728910923004e-02
-1.229262445122003555e-03
8.761683420743793249e-05
-1.171504482044838369e-04
1.322666276246309280e-02
1.095618680119514465e-02
-1.504703890532255173e-02
9.590613655745983124e-03
-1.275361180305480957e-01
-2.239754796028137207e-02
-1.493915042374283075e-04
2.433983422815799713e-02
-6.118473038077354431e-02
1.333776861429214478e-02
2.343854121863842010e-02
9.952179156243801117e-03
7.920322241261601448e-04
-2.281835861504077911e-02
2.451335825026035309e-02
-1.286946609616279602e-02
-1.575802266597747803e-02
-5.899166571907699108e-04
1.657714881002902985e-02
1.988200284540653229e-02
1.203308720141649246e-02
-8.513404754921793938e-04
-1.944878324866294861e-02
-1.094832830131053925e-02
-1.374002173542976379e-02
1.186741422861814499e-02
-1.317035406827926636e-02
-2.041337080299854279e-02
4.725810140371322632e-02
-2.052600122988224030e-02
-2.734302543103694916e-04
3.473332326393574476e-04
-1.790506951510906219e-02
1.500383112579584122e-02
-4.282593727111816406e-03
2.296794578433036804e-02
-2.600331604480743408e-02
-1.536571141332387924e-02
1.643516225158236921e-05
1.605695672333240509e-02
-1.276383269578218460e-02
-1.813520491123199463e-02
1.103202532976865768e-02
2.392735099419951439e-03
1.021796779241412878e-04
4.251862876117229462e-03
2.004749141633510590e-02
1.885783486068248749e-02
-1.193496354972012341e-04
-4.868342075496912003e-04
-3.311727894470095634e-03
3.839513054117560387e-03
-1.730305515229701996e-02
1.403671316802501678e-02
-3.496310440823435783e-03
-5.237693898379802704e-03
-2.264738641679286957e-02
-1.742845587432384491e-02
-1.850697025656700134e-02
3.714387072250247002e-03
1.364275161176919937e-02
-1.380747277289628983e-02
7.422005000989884138e-05
-6.777364092158677522e-08
1.557821889264232595e-07
-4.515447471931111068e-06
1.020484319269598927e-06
2.538226908654905856e-06
5.328960014594485983e-06
5.140285338711692020e-06
-4.908927042635014004e-09
-5.801202860311605036e-06
2.849465545295970514e-06
1.041919475142094598e-07
-4.190838808426633477e-06
-2.026996071435860358e-06
-8.372478532692184672e-08
4.683494353230344132e-06
-5.119446086609968916e-06
-2.063028148313605925e-08
2.405738314337213524e-06
3.740046565781085519e-07
-2.340184437343850732e-06
-3.350835868332069367e-06
2.605769964247883763e-07
-2.346404244235600345e-06
3.422764848437509499e-06
2.977565713990770746e-07
2.423973000986734405e-06
2.420101168354449328e-07
3.767680937016848475e-06
3.343889602547278628e-06
-2.840196202669176273e-06
4.274254933989141136e-06
2.924428343931140262e-08
