8.625952177681028843e-04
-2.950408088508993387e-04
-1.913682899612467736e-05
-1.169003429822623730e-03
-1.129452721215784550e-05
-1.309703337028622627e-03
8.191085071302950382e-04
-9.495737031102180481e-04
-1.049599144607782364e-03
-3.423695161473006010e-04
-2.140918695658911020e-05
-1.060232636518776417e-03
2.237945045635569841e-05
-7.436107844114303589e-04
-9.244555840268731117e-04
-3.956741784350015223e-05
2.185712219215929508e-05
-1.063244300894439220e-03
-4.888001512881601229e-06
-1.489291200414299965e-03
-1.255592069355770946e-04
7.181953405961394310e-04
7.635078509338200092e-04
-2.583150635473430157e-04
7.362842443399131298e-04
1.202762359753251076e-03
-4.188950406387448311e-04
-1.516394718237279449e-06
-5.195853882469236851e-04
1.155636156909167767e-03
-2.211775972682517022e-05
-9.228481212630867958e-04
-2.307530725374817848e-03
-4.810394020751118660e-04
6.728978041792288423e-05
-7.316221017390489578e-04
6.826199241913855076e-04
7.710974314250051975e-04
-2.961615845561027527e-02
1.574192196130752563e-02
-1.069385465234518051e-02
5.564105510711669922e-02
-9.591381065547466278e-03
6.510346382856369019e-02
-2.840750478208065033e-02
3.477388247847557068e-02
4.347598552703857422e-02
9.707281365990638733e-03
1.297513372264802456e-03
4.455383121967315674e-02
-1.992571633309125900e-03
1.730683073401451111e-02
4.444297403097152710e-02
1.182171283289790154e-03
7.384487427771091461e-03
4.155823215842247009e-02
-3.335922723636031151e-03
-3.891628608107566833e-02
2.531722374260425568e-02
-2.458275109529495239e-02
7.770694047212600708e-02
-6.584265269339084625e-03
9.767326712608337402e-02
-2.710737101733684540e-02
4.241976141929626465e-02
5.392542481422424316e-02
1.288263127207756042e-02
7.400560425594449043e-04
5.938233807682991028e-02
-1.584033831022679806e-03
3.289768099784851074e-02
5.170296505093574524e-02
3.949848003685474396e-03
6.943638902157545090e-03
5.551744997501373291e-02
-3.816039767116308212e-03
-6.579339504241943359e-02
2.255355007946491241e-02
-1.149834319949150085e-02
7.672962546348571777e-02
5.536854267120361328e-03
9.444501996040344238e-02
-1.539127714931964874e-02
4.077020660042762756e-02
5.153394863009452820e-02
2.013883553445339203e-02
-1.332321437075734138e-03
5.752241611480712891e-02
1.936067012138664722e-03
2.448301017284393311e-02
4.205404967069625854e-02
1.013753935694694519e-02
5.609533283859491348e-03
5.674337223172187805e-02
-3.529890906065702438e-03
-8.406988345086574554e-03
3.942869137972593307e-03
-3.520125523209571838e-03
1.434655953198671341e-02
8.336966275237500668e-04
1.841229759156703949e-02
-5.222242325544357300e-03
8.865432813763618469e-03
1.049575489014387131e-02
4.088813904672861099e-03
4.952402741764672101e-05
1.147720310837030411e-02
1.424428191967308521e-04
7.411346770823001862e-03
4.918591119349002838e-03
3.281738609075546265e-03
1.522370264865458012e-03
9.776697494089603424e-03
-2.081768121570348740e-03
-5.271305888891220093e-02
2.662355080246925354e-02
-1.298307534307241440e-02
8.659674972295761108e-02
4.639367572963237762e-03
1.097256690263748169e-01
-4.695542156696319580e-02
5.842944979667663574e-02
6.697019934654235840e-02
2.067363634705543518e-02
-1.628991798497736454e-03
7.022064179182052612e-02
2.231595572084188461e-03
4.350614920258522034e-02
5.014381185173988342e-02
1.021189708262681961e-02
6.194298621267080307e-03
7.001146674156188965e-02
-3.598013427108526230e-03
1.010795240290462971e-04
-2.782897718134336174e-05
2.165346586480154656e-06
-1.226370950462296605e-04
6.008813215885311365e-06
-1.171543408418074250e-04
7.824760541552677751e-05
-1.029220948112197220e-04
-1.154187993961386383e-04
-3.124382783425971866e-05
-5.933775355515535921e-06
-1.177963786176405847e-04
-3.449181349424179643e-07
-7.161537359934300184e-05
-1.009221523418091238e-04
9.399275768373627216e-06
5.477166723721893504e-06
-1.188491733046248555e-04
-5.365510787669336423e-06
-6.032988429069519043e-02
3.113414160907268524e-02
-1.679582148790359497e-02
8.632648736238479614e-02
7.154241669923067093e-03
1.183770671486854553e-01
-3.702883422374725342e-02
5.576934665441513062e-02
6.443101912736892700e-02
1.998275704681873322e-02
1.879841875052079558e-04
7.109786570072174072e-02
-1.836946117691695690e-03
5.138733610510826111e-02
6.356295943260192871e-02
-3.289078886155039072e-04
6.773095577955245972e-03
6.932767480611801147e-02
-2.279251115396618843e-03
-1.911902986466884613e-02
6.184308789670467377e-03
-3.538031596690416336e-03
2.820054627954959869e-02
-6.960442406125366688e-04
3.499995172023773193e-02
-1.331532653421163559e-02
1.971962675452232361e-02
2.414185926318168640e-02
9.516091085970401764e-03
-8.736734744161367416e-04
2.476529777050018311e-02
5.522293504327535629e-04
8.468680083751678467e-03
9.492094628512859344e-03
6.234077736735343933e-03
3.597808303311467171e-03
1.979744248092174530e-02
-2.252116333693265915e-03
-1.540575292892754078e-03
-1.114935803343541920e-04
6.178913754411041737e-04
7.986372220329940319e-04
-3.248130960855633020e-04
8.364209788851439953e-04
1.091204816475510597e-03
-3.808840992860496044e-04
3.388422192074358463e-05
-4.979362129233777523e-04
1.094871666282415390e-03
3.385825402801856399e-05
-9.355557267554104328e-04
-2.132711000740528107e-03
-5.912060732953250408e-04
1.139899031841196120e-04
-5.529157933779060841e-04
7.656798698008060455e-04
7.156819337978959084e-04
-1.821041293442249298e-02
1.767033338546752930e-02
-2.461836114525794983e-02
8.540789783000946045e-02
-1.908947597257792950e-03
1.367530226707458496e-01
-9.635812789201736450e-02
7.794651389122009277e-02
9.617282450199127197e-02
4.127993434667587280e-02
-6.266897078603506088e-03
8.895399421453475952e-02
5.810016300529241562e-03
5.561111494898796082e-02
9.801901131868362427e-02
1.681780209764838219e-03
3.839702578261494637e-03
7.817250490188598633e-02
3.351923078298568726e-03
-4.185819998383522034e-02
2.407007105648517609e-02
-1.329194568097591400e-02
5.957813933491706848e-02
6.049930118024349213e-03
8.516065031290054321e-02
-2.613080106675624847e-02
4.009167850017547607e-02
4.519987851381301880e-02
1.255455613136291504e-02
1.619754708372056484e-03
5.025912448763847351e-02
-4.459083080291748047e-03
3.314797580242156982e-02
4.230213537812232971e-02
1.424340443918481469e-04
4.805998411029577255e-03
4.964393749833106995e-02
-6.979961181059479713e-04
4.396640870254486799e-04
-2.521990099921822548e-04
1.534818147774785757e-04
-5.941929994150996208e-04
-7.935331086628139019e-05
-6.993162096478044987e-04
3.274497867096215487e-04
-3.955533320549875498e-04
-4.343056352809071541e-04
-2.493122883606702089e-04
-3.277300947956973687e-06
-4.710993671324104071e-04
1.295092442887835205e-05
-3.693727194331586361e-04
-4.097843775525689125e-04
-6.183079676702618599e-05
2.266353476443327963e-05
-4.690928617492318153e-04
-7.057497896312270314e-06
-6.340755522251129150e-02
3.017073683440685272e-02
-4.371870681643486023e-02
1.212288588285446167e-01
-1.963190548121929169e-02
1.336932480335235596e-01
-1.605952717363834381e-02
4.649669677019119263e-02
7.021555304527282715e-02
2.200308814644813538e-02
5.115020554512739182e-03
7.741233706474304199e-02
-3.144380403682589531e-03
-7.442525587975978851e-03
6.121620535850524902e-02
3.495964780449867249e-02
1.029892917722463608e-02
7.725708186626434326e-02
-8.491665124893188477e-03
-6.448014080524444580e-02
3.353340178728103638e-02
-1.899647898972034454e-02
1.056720837950706482e-01
5.288944113999605179e-03
1.346662640571594238e-01
-5.240350216627120972e-02
6.859659403562545776e-02
7.919466495513916016e-02
2.375193126499652863e-02
-1.899368013255298138e-03
8.438982814550399780e-02
1.619220944121479988e-03
5.541538074612617493e-02
6.757803261280059814e-02
8.527457714080810547e-03
8.656871505081653595e-03
8.286844938993453979e-02
-4.368514753878116608e-03
-1.809742650948464870e-03
2.349082933505997062e-04
4.520991060417145491e-04
1.482974039390683174e-03
-1.145308342529460788e-04
1.548976986669003963e-03
4.873503930866718292e-04
1.305746409343555570e-04
5.389793659560382366e-04
-2.617484133224934340e-04
1.045153243467211723e-03
5.490088369697332382e-04
-1.440326566807925701e-03
-1.539866905659437180e-03
5.582061712630093098e-04
-6.364015280269086361e-04
1.305015641264617443e-03
1.483946572989225388e-03
-1.451353891752660275e-04
-6.178345158696174622e-02
4.029864445328712463e-02
-1.814905088394880295e-03
6.170283257961273193e-02
2.711829915642738342e-02
1.135915145277976990e-01
-4.637641087174415588e-02
6.161968410015106201e-02
5.772660300135612488e-02
1.889874413609504700e-02
-1.221398590132594109e-03
6.647863984107971191e-02
6.194448360474780202e-05
6.071669608354568481e-02
5.046657845377922058e-02
1.923290779814124107e-03
-2.517505083233118057e-03
6.786620616912841797e-02
3.201290965080261230e-03
2.108773682266473770e-03
-7.752838428132236004e-04
1.898596528917551041e-04
-2.776053035631775856e-03
1.465062359784496948e-05
-3.172475378960371017e-03
1.985241658985614777e-03
-2.257149433717131615e-03
-2.460761228576302528e-03
-8.926840382628142834e-04
-2.283260982949286699e-05
-2.505836309865117073e-03
3.667762939585372806e-05
-1.836382551118731499e-03
-2.215267857536673546e-03
-8.748370601097121835e-05
2.520049747545272112e-05
-2.511034021154046059e-03
1.839954347815364599e-05
-4.008768126368522644e-02
3.213506191968917847e-02
-3.810216113924980164e-02
8.801501989364624023e-02
-7.261936552822589874e-03
1.085139289498329163e-01
-2.710851468145847321e-02
4.143466055393218994e-02
5.587083846330642700e-02
1.233067549765110016e-02
2.029988449066877365e-03
6.202175095677375793e-02
-1.401529996655881405e-03
3.459312394261360168e-02
5.455638840794563293e-02
9.390717372298240662e-03
5.492839496582746506e-03
6.360320746898651123e-02
-4.212887957692146301e-03
-5.085315555334091187e-02
3.504700586199760437e-02
-3.161135315895080566e-02
9.253868460655212402e-02
-3.666824661195278168e-03
1.204237043857574463e-01
-3.440515324473381042e-02
5.009130761027336121e-02
6.243364512920379639e-02
1.637357659637928009e-02
9.868291672319173813e-04
6.983695179224014282e-02
-2.724876103457063437e-04
4.027321934700012207e-02
6.237298622727394104e-02
1.145491283386945724e-02
6.235602311789989471e-03
7.132869213819503784e-02
-4.725011996924877167e-03
-9.641711949370801449e-04
-3.776419616769999266e-04
9.693109313957393169e-04
1.846727245720103383e-04
-1.804465864552184939e-04
2.204931661253795028e-05
1.467184745706617832e-03
-7.519515929743647575e-04
-4.032845899928361177e-04
-6.285698618739843369e-04
1.152420067228376865e-03
-4.848555254284292459e-04
-8.344341767951846123e-04
-2.690172754228115082e-03
-5.922332638874650002e-04
-6.661930819973349571e-05
-7.636008667759597301e-04
1.572262117406353354e-04
6.420741556212306023e-04
-9.666578844189643860e-03
2.562929643318057060e-03
-2.126001054421067238e-03
1.309287454932928085e-02
-7.555634365417063236e-04
1.633254066109657288e-02
-4.359123762696981430e-03
8.809809572994709015e-03
1.087853964418172836e-02
4.482126794755458832e-03
-1.321008221566444263e-05
1.138351671397686005e-02
-8.571102516725659370e-04
2.014722907915711403e-03
4.178308881819248199e-03
2.631525974720716476e-03
2.654901938512921333e-03
8.869621902704238892e-03
-1.974996179342269897e-03
-5.652990192174911499e-02
3.734962269663810730e-02
-2.956870757043361664e-02
9.540111571550369263e-02
1.880266645457595587e-04
1.277956068515777588e-01
-3.701202943921089172e-02
5.442269518971443176e-02
6.580121070146560669e-02
1.784755289554595947e-02
6.439846474677324295e-04
7.388335466384887695e-02
7.985639967955648899e-05
4.319879785180091858e-02
6.388363987207412720e-02
1.152255013585090637e-02
3.982153721153736115e-03
7.603275775909423828e-02
-3.373249899595975876e-03
-3.730114921927452087e-02
2.212092839181423187e-02
-2.287311665713787079e-02
7.032500952482223511e-02
-6.541048642247915268e-03
8.621376752853393555e-02
-1.811835728585720062e-02
3.546416014432907104e-02
4.527607932686805725e-02
9.589239954948425293e-03
1.531859510578215122e-03
5.151658877730369568e-02
-2.026614965870976448e-03
2.850771509110927582e-02
4.775360226631164551e-02
9.812979260459542274e-04
6.252664141356945038e-03
4.817508533596992493e-02
-2.098021563142538071e-03
-8.537073433399200439e-02
2.124221436679363251e-02
-1.571035099914297462e-04
8.748437464237213135e-02
1.313041523098945618e-02
1.084288656711578369e-01
-1.580674946308135986e-02
5.109995603561401367e-02
5.774534866213798523e-02
2.123659849166870117e-02
-5.418392247520387173e-04
6.804215908050537109e-02
2.182708587497472763e-03
5.213237553834915161e-02
5.376337841153144836e-02
1.544890576042234898e-03
4.153407178819179535e-03
6.459116935729980469e-02
5.432266043499112129e-04
-1.004332210868597031e-03
-3.395656531210988760e-04
8.822051458992063999e-04
2.708505198825150728e-04
-3.543698694556951523e-04
1.158547456725500524e-04
1.425102585926651955e-03
-7.308381027542054653e-04
-3.625095705501735210e-04
-6.793524953536689281e-04
1.189621863886713982e-03
-4.301835142541676760e-04
-8.775637834332883358e-04
-2.650927985087037086e-03
-6.074203993193805218e-04
-1.494625466875731945e-04
-6.307548610493540764e-04
2.396701602265238762e-04
6.390817579813301563e-04
-7.991884648799896240e-02
5.567569658160209656e-02
-1.615445874631404877e-02
1.189126223325729370e-01
1.143451221287250519e-02
1.796965599060058594e-01
-8.215221017599105835e-02
9.287609159946441650e-02
1.006603688001632690e-01
3.175550326704978943e-02
-5.383040988817811012e-04
1.091070622205734253e-01
-2.078148536384105682e-03
6.353916972875595093e-02
5.628721043467521667e-02
3.856059163808822632e-02
9.858668781816959381e-03
1.118515878915786743e-01
-1.083573233336210251e-02
-4.188945889472961426e-02
1.951431296765804291e-02
-4.785594716668128967e-02
1.097554638981819153e-01
-3.414810076355934143e-02
1.071532517671585083e-01
-1.397784706205129623e-02
3.085022978484630585e-02
5.821567773818969727e-02
1.482918392866849899e-02
4.579937551170587540e-03
6.239988654851913452e-02
-2.889768686145544052e-03
4.009114578366279602e-03
5.353008955717086792e-02
2.835668623447418213e-02
1.125340908765792847e-02
6.487219780683517456e-02
-1.304221712052822113e-02
-6.562024354934692383e-02
2.552936039865016937e-02
-1.751223579049110413e-03
8.795212209224700928e-02
1.288624759763479233e-02
1.231630817055702209e-01
-6.071496382355690002e-02
7.211415469646453857e-02
7.994732260704040527e-02
3.102799691259860992e-02
-2.938325051218271255e-03
8.187549561262130737e-02
1.397246611304581165e-03
5.177057534456253052e-02
4.830238223075866699e-02
1.532247941941022873e-02
1.977117732167243958e-03
7.969193160533905029e-02
-3.017287934198975563e-03
-5.368679016828536987e-02
3.355240821838378906e-02
-1.807882823050022125e-02
8.282180875539779663e-02
5.419204011559486389e-03
1.161586344242095947e-01
-4.263361915946006775e-02
5.548975989222526550e-02
6.243043020367622375e-02
1.799789443612098694e-02
9.628409752622246742e-04
6.884809583425521851e-02
-1.552102388814091682e-03
4.769158735871315002e-02
6.797900795936584473e-02
4.602239467203617096e-03
4.643137566745281219e-03
6.936300545930862427e-02
-1.106139156036078930e-03
1.187036377814365551e-05
-1.177828562504146248e-05
-2.834059841916314326e-06
-1.362223429168807343e-05
-3.035508825632859953e-06
-1.423160756530705839e-05
1.991232056752778590e-05
-1.653320941841229796e-05
-1.653077924856916070e-05
-1.352139679511310533e-05
1.177933199869585223e-06
-1.533150134491734207e-05
1.140522158493695315e-06
-1.462502495996886864e-05
-1.501885071775177494e-05
-4.174331706963130273e-07
-1.330945110566972289e-06
-1.542248537589330226e-05
2.631856261814391473e-07
